{"fitness": 1.4327693100710952, "nodeCount": [5, 13, 8, 13, 3], "weights": [[[0.07761998688115646, -0.11901773423406747, -0.7072275897879841, -0.5943954819103432, 0.27988960072057045, -0.7320415761218668, 0.5133114042522418, 0.8547364338783048, 0.011611468508391454, -0.651282925674846, -0.8126070186803132, 0.8800844768413296, 0.33106438166338426], [-0.8127067277086328, 0.8029882978728242, 0.8806312390999562, -0.9652103602558517, 0.7149586222055926, 0.8727838366984868, -0.05308525771340822, 0.4765136651328954, 0.3296531374658349, 0.7929687965587311, -0.9886641330048351, -0.13682582651316433, 0.8868686422846139], [0.6556027869119274, -0.7580300966421498, 0.8192304980594647, 0.3468657799837833, 0.588763241458208, 0.9418157535716054, -0.486684475737019, 0.8176002419009893, -0.04592328348037089, -0.23019045889190326, 0.9881722302189191, -0.5620526240542829, -0.3637244084301907], [-0.6237204492551127, 0.30787100287752445, -0.6362719364895255, 0.21726386379262386, 0.572484615563287, -0.874253577440935, 0.7086553036920664, 0.9746701730613456, -0.3261380615623837, -0.3833647712326904, -0.7988379219526585, 0.48759980239568335, -0.8297913599872566], [0.4930272258738575, 0.7296292781396649, 0.5868132865478213, 0.6594360405125372, -0.23549401983127005, 0.5401745703926255, -0.2846141732898675, -0.9572877074178026, 0.5691041691293703, 0.5531992865389055, 0.715516626704356, -0.5061354738148158, 0.006365013613250703]], [[-0.04144764210347485, 0.7870005434295511, 0.027602490916033062, -0.23167138177815616, 0.5728326220812356, 0.5233817219019097, -0.0412186957593097, 0.7853028653139307], [-0.555008339971446, -0.5666638076025754, 0.47681435266087124, 0.17316925195207067, 0.6463765801660741, -0.28702554860627516, -0.8611974224042458, 0.6121788263349286], [0.4239221482669473, -0.40977001695053916, -0.7916112407054181, 0.01024968093774481, 0.8612926052693295, -0.07590908280347164, 0.733361958145976, 0.44302842553654753], [-0.40924754034556954, -0.5795551192735642, 0.30015376793376247, 0.40709653238957766, -0.48849802283445865, 0.47619571704146857, 0.840820399033869, 0.902843005914189], [0.7266121090988911, -0.038345982416023716, 0.4341090118849713, 0.9767879053727717, -0.6233242278798634, -0.12047462852438473, 0.8475295055637819, 0.3306121845208707], [0.9886726586537102, -0.2983337693234902, 0.2927353951019125, -0.4966391824141212, 0.3356317664387789, 0.084018406702705, 0.4280187001749529, 0.37073400019315694], [0.4947425287595757, -0.5876651109457973, -0.9301735523279726, -0.43812504828232623, 0.5938172844598006, 0.946380914889922, -0.610960381638874, 0.8286915046632508], [-0.16859928251311107, 0.8418978233113794, 0.6536073160767193, 0.6904171264401908, -0.43262221132806866, 0.6566875716891245, -0.915888648199563, -0.09032614509108772], [-0.8975325467511623, -0.15396221332214122, -0.9931171138012429, 0.3357193600094275, 0.46596087169355505, -0.6321715948415327, -0.4160186435495923, 0.1688955545341979], [0.23172534558797242, 0.14236846500700517, -0.16962082266979017, 0.2354783694417808, -0.4499782269343977, 0.41152867609956845, 0.8394801995687338, 0.8911211214439265], [-0.6527062911928936, 0.5003523993143659, -0.43647210357485067, 0.7260022279278329, -0.9229411287092295, 0.21026156039236188, -0.14855829598722492, -0.19731227577086696], [0.17775549563398374, 0.8532030780898987, 0.06853080486098628, -0.6160445690407041, 0.6641955407144309, -0.7239188815388513, 0.4587157950932581, -0.9213659999441417], [-0.2120675708574058, -0.631590619024091, -0.3396667220946237, 0.2586384506061328, 0.5518788235707506, -0.7014535318049029, 0.8710395295173547, -0.9195149505061666]], [[-0.06324735879892107, -0.9284630358126233, -0.17981303028647178, 0.5453413537540444, 0.27591452692450824, 0.10044967689768969, -0.6780558259385647, 0.9771058356256443, 0.08804402322924454, 0.9037518555251554, 0.4122213788980498, -0.7537042787850008, 0.7994402668319853], [0.029561089214515945, 0.6369837457945928, 0.31055971821017136, 0.8822602928035985, -0.48715422489805715, -0.33074898592192103, 0.3798256297122622, -0.1870325732475724, 0.9709831442419321, 0.4936336200916249, -0.3047644529167046, 0.1225273443456949, -0.9402112298638234], [0.42169996915548147, 0.5494414833081385, 0.23511444041982377, -0.4908886696573054, -0.6090929987533653, 0.7413156426340068, 0.7883653539163609, -0.3110517603263263, 0.3686633881580563, -0.24315494959975803, 0.7582178534017396, 0.003679627079521408, -0.6616831321848684], [-0.7958306285443595, -0.2945682280376194, 0.1323919808475018, -0.26533913088044936, -0.35026487534319495, -0.03750361874361974, -0.516307807655269, -0.8595137572323583, 0.541760688693337, -0.19463026139549533, 0.25450577531085905, -0.13552433343644354, 0.9824735936449867], [-0.945485770980137, -0.7579406404408493, 0.6965256990756645, 0.02950334569171087, -0.9832877600526717, 0.8306965461061642, -0.9037215447299642, -0.018268027328746772, 0.7773121040052429, 0.9940112670484793, 0.961270038557738, 0.5394562551121023, -0.10168341953285598], [-0.5397553290400399, -0.4284085215582829, 0.7269038091963573, 0.8748999318139896, 0.10861804919842521, -0.0900869288893289, 0.09832106902296989, 0.7346972664837674, 0.8512003054722663, 0.209855004932757, -0.3849384595725456, -0.21486467704808043, -0.6796554920497913], [0.06339172906965573, -0.21307509446066164, 0.8104901036650347, -0.3459142547508671, 0.18488098866233926, -0.5850346339905612, -0.4372839564448594, -0.11953101698800861, -0.7072525123835447, -0.5654116916710314, 0.2669111310650738, -0.22511825553149922, 0.28186800005963764], [-0.6431186607016219, -0.5228969119264388, 0.5546414981841532, -0.7424448137540387, 0.7019720892035033, 0.8926033479408555, 0.3138349466468404, 0.32640473307830864, 0.4911171476900189, -0.06423900147891559, 0.4369975104694279, -0.19814386194248157, -0.7817844041135316]], [[-0.9639991620387836, 0.7962513980124952, -0.3892063200715341], [0.5960724381398477, 0.8916667963324776, -0.35433125169084234], [0.9287365931504294, 0.9655421072228934, -0.565872347457471], [-0.004734571333379511, 0.9530263633086433, 0.8784202854192353], [0.2533992503783311, 0.7812275995501714, -0.8285005072149458], [-0.43266720983890283, 0.5436635046950999, 0.769949349557133], [0.4887227406980066, -0.13592371534182268, -0.7524980335984568], [0.5315125383250059, 0.16429339688604516, -0.020314356465063188], [0.9336673626948107, 0.5663658840871284, -0.8356266145958033], [-0.14798843314206622, -0.4885360551638698, 0.5714833947910483], [-0.2966641269190613, -0.034239304052443575, 0.4461870836546138], [-0.9659885349331674, -0.0900298943932416, -0.33144450425132144], [0.570899338006547, 0.9328234764547947, -0.1417736031135708]]], "biases": [[-0.939700893369291, 0.5844454940299675, -0.24572723659705242, -0.18693588399720062, 0.3703333697141946, -0.8573530460554943, 0.5788313697123406, -0.8945222989886306, 0.002658353245571954, -0.9655582915980159, 0.15979109352591503, -0.11100667439707634, 0.39090225681615687], [0.36155228473723855, 0.5459356626239584, -0.4594933810645605, -0.9413752047690156, -0.6045333469262171, -0.3736191657778465, 0.7739625742386818, 0.49549519990342983], [0.2388442945282918, -0.9037534067187527, -0.9928149833128281, -0.4445607443418964, 0.9482946076508356, -0.5698821709000976, 0.6791722027336462, -0.3167950258907928, 0.9719981256467887, -0.778818283267315, -0.34987672020571803, -0.07884140252592364, -0.5819610691310673], [0.9261007491900344, -0.8243123348429939, 0.7155800618857269]], "seed": 0}